{
  "atoms": [
    {
      "atomic_number": 6,
      "atom_index": 0,
      "atom_name": "C1",
      "formal_charge": 0,
      "aromatic": false,
      "stereochemistry": null,
      "bonds": [
        1,
        2,
        3,
        4
      ],
      "aim": {
        "volume": 27.8633,
        "charge": -0.075895,
        "c8": null
      },
      "dipole": {
        "x": -0.140394,
        "y": 0.016664,
        "z": 5e-05
      },
      "quadrupole": {
        "q_xx": 0.072254,
        "q_xy": -0.005425,
        "q_xz": -1.4e-05,
        "q_yz": -6e-06,
        "q_yy": -0.020686999999999997,
        "q_zz": -0.051567
      },
      "cloud_pen": {
        "a": -1.062908,
        "b": 1.869607
      }
    },
    {
      "atomic_number": 8,
      "atom_index": 1,
      "atom_name": "O1",
      "formal_charge": 0,
      "aromatic": false,
      "stereochemistry": null,
      "bonds": [
        0,
        5
      ],
      "aim": {
        "volume": 25.785482,
        "charge": -0.526233,
        "c8": null
      },
      "dipole": {
        "x": 0.229682,
        "y": -0.087745,
        "z": 1e-06
      },
      "quadrupole": {
        "q_xx": 0.18530783333333334,
        "q_xy": 0.134,
        "q_xz": 2e-06,
        "q_yz": -9e-06,
        "q_yy": 0.03779683333333332,
        "q_zz": -0.22310466666666665
      },
      "cloud_pen": {
        "a": -0.941862,
        "b": 1.979695
      }
    },
    {
      "atomic_number": 1,
      "atom_index": 2,
      "atom_name": "H1",
      "formal_charge": 0,
      "aromatic": false,
      "stereochemistry": null,
      "bonds": [
        0
      ],
      "aim": {
        "volume": 3.7192163333333332,
        "charge": 0.07891433333333334,
        "c8": null
      },
      "dipole": {
        "x": 0.008345,
        "y": -0.018418,
        "z": 0.034792
      },
      "quadrupole": {
        "q_xx": 0.011111666666666667,
        "q_xy": 9.8e-05,
        "q_xz": -0.001625,
        "q_yz": -0.011817,
        "q_yy": -0.012348333333333334,
        "q_zz": 0.0012366666666666667
      },
      "cloud_pen": {
        "a": -3.742243,
        "b": 1.729603
      }
    },
    {
      "atomic_number": 1,
      "atom_index": 3,
      "atom_name": "H2",
      "formal_charge": 0,
      "aromatic": false,
      "stereochemistry": null,
      "bonds": [
        0
      ],
      "aim": {
        "volume": 3.7192163333333332,
        "charge": 0.07891433333333334,
        "c8": null
      },
      "dipole": {
        "x": 0.006122,
        "y": 0.04255,
        "z": -8e-06
      },
      "quadrupole": {
        "q_xx": 0.011116333333333332,
        "q_xy": -0.000916,
        "q_xz": 5e-06,
        "q_yz": -3e-05,
        "q_yy": 0.009501333333333334,
        "q_zz": -0.020617666666666666
      },
      "cloud_pen": {
        "a": -3.826124,
        "b": 1.688778
      }
    },
    {
      "atomic_number": 1,
      "atom_index": 4,
      "atom_name": "H3",
      "formal_charge": 0,
      "aromatic": false,
      "stereochemistry": null,
      "bonds": [
        0
      ],
      "aim": {
        "volume": 3.7192163333333332,
        "charge": 0.07891433333333334,
        "c8": null
      },
      "dipole": {
        "x": 0.008328,
        "y": -0.018436,
        "z": -0.034729
      },
      "quadrupole": {
        "q_xx": 0.011039499999999999,
        "q_xy": 0.000115,
        "q_xz": 0.001623,
        "q_yz": 0.011823,
        "q_yy": -0.0122935,
        "q_zz": 0.0012540000000000001
      },
      "cloud_pen": {
        "a": -3.742436,
        "b": 1.72963
      }
    },
    {
      "atomic_number": 1,
      "atom_index": 5,
      "atom_name": "H4",
      "formal_charge": 0,
      "aromatic": false,
      "stereochemistry": null,
      "bonds": [
        1
      ],
      "aim": {
        "volume": 2.273847,
        "charge": 0.365385,
        "c8": null
      },
      "dipole": {
        "x": -0.019723,
        "y": -0.044282,
        "z": 3e-06
      },
      "quadrupole": {
        "q_xx": 0.016036,
        "q_xy": 0.01154,
        "q_xz": -3e-06,
        "q_yz": 6e-06,
        "q_yy": 0.011209,
        "q_zz": -0.027245000000000002
      },
      "cloud_pen": {
        "a": -4.090911,
        "b": 1.717927
      }
    }
  ],
  "bonds": [
    {
      "atom1_index": 0,
      "atom2_index": 1,
      "bond_order": 1.0,
      "aromatic": false,
      "stereochemistry": null
    },
    {
      "atom1_index": 0,
      "atom2_index": 2,
      "bond_order": 1.0,
      "aromatic": false,
      "stereochemistry": null
    },
    {
      "atom1_index": 0,
      "atom2_index": 3,
      "bond_order": 1.0,
      "aromatic": false,
      "stereochemistry": null
    },
    {
      "atom1_index": 0,
      "atom2_index": 4,
      "bond_order": 1.0,
      "aromatic": false,
      "stereochemistry": null
    },
    {
      "atom1_index": 1,
      "atom2_index": 5,
      "bond_order": 1.0,
      "aromatic": false,
      "stereochemistry": null
    }
  ],
  "coordinates": [
    -0.35869630864952384,
    -0.023902602214600166,
    -0.013874298702095281,
    0.9830577676010371,
    -0.4079834409891434,
    -0.23712551289556852,
    -0.5988006642858741,
    0.03839499712417983,
    1.054770247146578,
    -0.9876214887732934,
    -0.7937064579211556,
    -0.4616060219397564,
    -0.5986663719737421,
    0.93574659879196,
    -0.48824261599335,
    1.5607270607896264,
    0.25145090520875957,
    0.1460782023841922
  ],
  "multiplicity": 1,
  "name": "CO",
  "provenance": {
    "creator": "QUBEKit",
    "version": "v.2.0.0+297.gf5b865d",
    "routine": [
      "QUBEKit.ligand.from_smiles",
      "CO",
      "QUBEKit.ligand.from_rdkit"
    ]
  },
  "extra_sites": {
    "sites": {
      "1": [
        {
          "type": "VirtualSite3Point",
          "attributes": [],
          "parameter_eval": [],
          "parent_index": 1,
          "closest_a_index": 0,
          "closest_b_index": 5,
          "o_weights": [
            1.0,
            0.0,
            0.0
          ],
          "x_weights": [
            -1.0,
            1.0,
            0.0
          ],
          "y_weights": [
            -1.0,
            0.0,
            1.0
          ],
          "p1": -0.052,
          "p2": -0.0427,
          "p3": 0.0673,
          "charge": -0.084521
        },
        {
          "type": "VirtualSite3Point",
          "attributes": [],
          "parameter_eval": [],
          "parent_index": 1,
          "closest_a_index": 0,
          "closest_b_index": 5,
          "o_weights": [
            1.0,
            0.0,
            0.0
          ],
          "x_weights": [
            -1.0,
            1.0,
            0.0
          ],
          "y_weights": [
            -1.0,
            0.0,
            1.0
          ],
          "p1": -0.052,
          "p2": -0.0427,
          "p3": -0.0673,
          "charge": -0.084521
        }
      ]
    }
  },
  "BondForce": {
    "type": "HarmonicBondForce",
    "parameters": [
      {
        "type": "HarmonicBondParameter",
        "attributes": [],
        "parameter_eval": [],
        "atoms": [
          0,
          1
        ],
        "length": 0.14133871360981085,
        "k": 246439.03599292558
      },
      {
        "type": "HarmonicBondParameter",
        "attributes": [],
        "parameter_eval": [],
        "atoms": [
          0,
          2
        ],
        "length": 0.10947826705611498,
        "k": 291295.5352232573
      },
      {
        "type": "HarmonicBondParameter",
        "attributes": [],
        "parameter_eval": [],
        "atoms": [
          0,
          3
        ],
        "length": 0.10947826705611498,
        "k": 291295.5352232573
      },
      {
        "type": "HarmonicBondParameter",
        "attributes": [],
        "parameter_eval": [],
        "atoms": [
          0,
          4
        ],
        "length": 0.10947826705611498,
        "k": 291295.5352232573
      },
      {
        "type": "HarmonicBondParameter",
        "attributes": [],
        "parameter_eval": [],
        "atoms": [
          1,
          5
        ],
        "length": 0.09567656748873635,
        "k": 513819.1803054204
      }
    ]
  },
  "AngleForce": {
    "type": "HarmonicAngleForce",
    "parameters": [
      {
        "type": "HarmonicAngleParameter",
        "attributes": [],
        "parameter_eval": [],
        "atoms": [
          1,
          0,
          2
        ],
        "k": 532.5182686315674,
        "angle": 1.9269314058670837
      },
      {
        "type": "HarmonicAngleParameter",
        "attributes": [],
        "parameter_eval": [],
        "atoms": [
          1,
          0,
          3
        ],
        "k": 532.5182686315674,
        "angle": 1.9269314058670837
      },
      {
        "type": "HarmonicAngleParameter",
        "attributes": [],
        "parameter_eval": [],
        "atoms": [
          1,
          0,
          4
        ],
        "k": 532.5182686315674,
        "angle": 1.9269314058670837
      },
      {
        "type": "HarmonicAngleParameter",
        "attributes": [],
        "parameter_eval": [],
        "atoms": [
          2,
          0,
          3
        ],
        "k": 357.04972174127846,
        "angle": 1.8935143399299552
      },
      {
        "type": "HarmonicAngleParameter",
        "attributes": [],
        "parameter_eval": [],
        "atoms": [
          2,
          0,
          4
        ],
        "k": 357.04972174127846,
        "angle": 1.8935143399299552
      },
      {
        "type": "HarmonicAngleParameter",
        "attributes": [],
        "parameter_eval": [],
        "atoms": [
          3,
          0,
          4
        ],
        "k": 357.04972174127846,
        "angle": 1.8935143399299552
      },
      {
        "type": "HarmonicAngleParameter",
        "attributes": [],
        "parameter_eval": [],
        "atoms": [
          0,
          1,
          5
        ],
        "k": 578.5028127871497,
        "angle": 1.89928523163216
      }
    ]
  },
  "TorsionForce": {
    "type": "PeriodicTorsionForce",
    "parameters": [
      {
        "type": "PeriodicTorsionParameter",
        "attributes": [],
        "parameter_eval": [],
        "atoms": [
          2,
          0,
          1,
          5
        ],
        "k1": 0.0,
        "k2": 0.0,
        "k3": 0.9743050933247757,
        "k4": 0.0,
        "periodicity1": 1,
        "periodicity2": 2,
        "periodicity3": 3,
        "periodicity4": 4,
        "phase1": 0.0,
        "phase2": 3.141592653589793,
        "phase3": 0.0,
        "phase4": 3.141592653589793
      },
      {
        "type": "PeriodicTorsionParameter",
        "attributes": [],
        "parameter_eval": [],
        "atoms": [
          3,
          0,
          1,
          5
        ],
        "k1": 0.0,
        "k2": 0.0,
        "k3": 0.9743050933247757,
        "k4": 0.0,
        "periodicity1": 1,
        "periodicity2": 2,
        "periodicity3": 3,
        "periodicity4": 4,
        "phase1": 0.0,
        "phase2": 3.141592653589793,
        "phase3": 0.0,
        "phase4": 3.141592653589793
      },
      {
        "type": "PeriodicTorsionParameter",
        "attributes": [],
        "parameter_eval": [],
        "atoms": [
          4,
          0,
          1,
          5
        ],
        "k1": 0.0,
        "k2": 0.0,
        "k3": 0.9743050933247757,
        "k4": 0.0,
        "periodicity1": 1,
        "periodicity2": 2,
        "periodicity3": 3,
        "periodicity4": 4,
        "phase1": 0.0,
        "phase2": 3.141592653589793,
        "phase3": 0.0,
        "phase4": 3.141592653589793
      }
    ],
    "ordering": "smirnoff"
  },
  "ImproperTorsionForce": {
    "type": "PeriodicImproperTorsionForce",
    "parameters": []
  },
  "RBTorsionForce": {
    "type": "RBProperTorsionForce",
    "parameters": []
  },
  "ImproperRBTorsionForce": {
    "type": "RBImproperTorsionForce",
    "parameters": []
  },
  "NonbondedForce": {
    "type": "NonbondedForce",
    "parameters": [
      {
        "type": "LennardJones612",
        "attributes": [],
        "parameter_eval": [],
        "atoms": [
          0
        ],
        "charge": -0.075895,
        "epsilon": 0.2591872310183991,
        "sigma": 0.34547214313885627
      },
      {
        "type": "LennardJones612",
        "attributes": [],
        "parameter_eval": [],
        "atoms": [
          1
        ],
        "charge": -0.357191,
        "epsilon": 0.5689240482522118,
        "sigma": 0.3001276256370584
      },
      {
        "type": "LennardJones612",
        "attributes": [],
        "parameter_eval": [],
        "atoms": [
          2
        ],
        "charge": 0.078914,
        "epsilon": 0.15047278650152818,
        "sigma": 0.23027570847799728
      },
      {
        "type": "LennardJones612",
        "attributes": [],
        "parameter_eval": [],
        "atoms": [
          3
        ],
        "charge": 0.078914,
        "epsilon": 0.15047278650152818,
        "sigma": 0.23027570847799728
      },
      {
        "type": "LennardJones612",
        "attributes": [],
        "parameter_eval": [],
        "atoms": [
          4
        ],
        "charge": 0.078914,
        "epsilon": 0.15047278650152818,
        "sigma": 0.23027570847799728
      },
      {
        "type": "LennardJones612",
        "attributes": [],
        "parameter_eval": [],
        "atoms": [
          5
        ],
        "charge": 0.365386,
        "epsilon": 0.0,
        "sigma": 1.0
      }
    ],
    "coulomb14scale": 0.8333333333,
    "lj14scale": 0.5,
    "combination": "amber"
  },
  "chargemol_coords": [
    0.661576,
    -0.020187,
    1e-06,
    -0.744672,
    0.121696,
    -1e-06,
    1.024424,
    -0.544625,
    0.892659,
    1.081823,
    0.985795,
    -0.000364,
    1.024359,
    -0.54526,
    -0.892314,
    -1.142688,
    -0.748353,
    2.4e-05
  ],
  "hessian": [
    0.50306105,
    0.0381662324,
    0.0221819904,
    -0.238068666,
    0.0229904174,
    0.0133612387,
    -0.056712998,
    0.00109841269,
    0.0400340647,
    -0.124770119,
    -0.112758177,
    -0.06558967,
    -0.0567252721,
    0.0353068733,
    -0.0188112125,
    -0.0267839948,
    0.0151962412,
    0.00882358872,
    0.0381662324,
    0.583171436,
    0.0116506463,
    0.0624962305,
    -0.0977294935,
    -0.0213307309,
    -0.000635924004,
    -0.053573314,
    -0.0108175033,
    -0.101367034,
    -0.194556135,
    -0.0835203055,
    0.0312980267,
    -0.244143539,
    0.0995988657,
    -0.0299575313,
    0.0068310456,
    0.00441902772,
    0.0221819904,
    0.0116506463,
    0.569816776,
    0.0363156583,
    -0.0213291796,
    -0.073423522,
    0.0364119677,
    -0.00883926573,
    -0.294597724,
    -0.0589707764,
    -0.083515658,
    -0.0995147753,
    -0.0185252374,
    0.0976138533,
    -0.10407348,
    -0.0174136026,
    0.00441960374,
    0.00179272492,
    -0.238068666,
    0.0624962305,
    0.0363156583,
    0.53340783,
    0.141301227,
    0.0820523827,
    -0.0236759041,
    0.00685000828,
    0.00994615705,
    -0.0334754287,
    0.0078732653,
    0.00457011958,
    -0.0236532677,
    0.0120250531,
    0.00102888454,
    -0.214534564,
    -0.230545784,
    -0.133913202,
    0.0229904174,
    -0.0977294935,
    -0.0213291796,
    0.141301227,
    0.37004802,
    0.188984331,
    0.00758123648,
    0.00146925297,
    -0.00222522684,
    -0.0243409718,
    0.0111370311,
    0.00540906668,
    0.0359704165,
    -0.00306329987,
    -0.00844012211,
    -0.183502325,
    -0.28186151,
    -0.162398869,
    0.0133612387,
    -0.0213307309,
    -0.073423522,
    0.0820523827,
    0.188984331,
    0.154689812,
    0.0370776564,
    -0.0110171016,
    0.0030260725,
    -0.0141522881,
    0.00540883149,
    0.00499866637,
    -0.0117549594,
    0.000356701873,
    0.00752348034,
    -0.10658403,
    -0.162402032,
    -0.0968145091,
    -0.056712998,
    -0.000635924004,
    0.0364119677,
    -0.0236759041,
    0.00758123648,
    0.0370776564,
    0.0706073869,
    -0.00663863528,
    -0.053142699,
    0.00509917874,
    0.000457832859,
    -0.0172677419,
    0.00334640438,
    -0.00145075892,
    -0.00449496477,
    0.00133593208,
    0.000686248863,
    0.00141578156,
    0.00109841269,
    -0.053573314,
    -0.00883926573,
    0.00685000828,
    0.00146925297,
    -0.0110171016,
    -0.00663863528,
    0.0492130882,
    0.0137667942,
    0.00417347794,
    0.000420176758,
    -0.0234586875,
    -0.00462917791,
    0.0025670803,
    0.0286203637,
    -0.000854085724,
    -9.62842432e-05,
    0.000927896991,
    0.0400340647,
    -0.0108175033,
    -0.294597724,
    0.00994615705,
    -0.00222522684,
    0.0030260725,
    -0.053142699,
    0.0137667942,
    0.316029908,
    0.00163345714,
    0.000847783807,
    -0.0119587416,
    0.00096594368,
    -0.00117584541,
    -0.0130610191,
    0.000563076395,
    -0.000396002413,
    0.00056150398,
    -0.124770119,
    -0.101367034,
    -0.0589707764,
    -0.0334754287,
    -0.0243409718,
    -0.0141522881,
    0.00509917874,
    0.00417347794,
    0.00163345714,
    0.154513077,
    0.115689638,
    0.0673039664,
    0.00509261771,
    0.00348234875,
    0.00281788219,
    -0.00645932547,
    0.00236254182,
    0.00136775874,
    -0.112758177,
    -0.194556135,
    -0.083515658,
    0.0078732653,
    0.0111370311,
    0.00540883149,
    0.000457832859,
    0.000420176758,
    0.000847783807,
    0.115689638,
    0.200759791,
    0.0894982491,
    -0.0147771249,
    -0.0186520459,
    -0.0126116762,
    0.00351456612,
    0.000891181942,
    0.000372469813,
    -0.06558967,
    -0.0835203055,
    -0.0995147753,
    0.00457011958,
    0.00540906668,
    0.00499866637,
    -0.0172677419,
    -0.0234586875,
    -0.0119587416,
    0.0673039664,
    0.0894982491,
    0.0988996181,
    0.00893642345,
    0.011699344,
    0.00710930883,
    0.00204690249,
    0.000372333201,
    0.000465923643,
    -0.0567252721,
    0.0312980267,
    -0.0185252374,
    -0.0236532677,
    0.0359704165,
    -0.0117549594,
    0.00334640438,
    -0.00462917791,
    0.00096594368,
    0.00509261771,
    -0.0147771249,
    0.00893642345,
    0.0706000626,
    -0.0494303343,
    0.0204807542,
    0.00133945517,
    0.00156819398,
    -0.00010292447,
    0.0353068733,
    -0.244143539,
    0.0976138533,
    0.0120250531,
    -0.00306329987,
    0.000356701873,
    -0.00145075892,
    0.0025670803,
    -0.00117584541,
    0.00348234875,
    -0.0186520459,
    0.011699344,
    -0.0494303343,
    0.262661728,
    -0.10768097,
    6.68181161e-05,
    0.0006300759,
    -0.000813083833,
    -0.0188112125,
    0.0995988657,
    -0.10407348,
    0.00102888454,
    -0.00844012211,
    0.00752348034,
    -0.00449496477,
    0.0286203637,
    -0.0130610191,
    0.00281788219,
    -0.0126116762,
    0.00710930883,
    0.0204807542,
    -0.10768097,
    0.102662521,
    -0.00102134363,
    0.000513538912,
    -0.000160810998,
    -0.0267839948,
    -0.0299575313,
    -0.0174136026,
    -0.214534564,
    -0.183502325,
    -0.10658403,
    0.00133593208,
    -0.000854085724,
    0.000563076395,
    -0.00645932547,
    0.00351456612,
    0.00204690249,
    0.00133945517,
    6.68181161e-05,
    -0.00102134363,
    0.245102497,
    0.210732558,
    0.122408998,
    0.0151962412,
    0.0068310456,
    0.00441960374,
    -0.230545784,
    -0.28186151,
    -0.162402032,
    0.000686248863,
    -9.62842432e-05,
    -0.000396002413,
    0.00236254182,
    0.000891181942,
    0.000372333201,
    0.00156819398,
    0.0006300759,
    0.000513538912,
    0.210732558,
    0.273605491,
    0.157492558,
    0.00882358872,
    0.00441902772,
    0.00179272492,
    -0.133913202,
    -0.162398869,
    -0.0968145091,
    0.00141578156,
    0.000927896991,
    0.00056150398,
    0.00136775874,
    0.000372469813,
    0.000465923643,
    -0.00010292447,
    -0.000813083833,
    -0.000160810998,
    0.122408998,
    0.157492558,
    0.0941551676
  ],
  "qm_scans": [],
  "wbo": [
    0.0,
    0.9559,
    0.9517,
    0.9481,
    0.9517,
    0.0035,
    0.9559,
    0.0,
    0.0256,
    0.0121,
    0.0256,
    0.7845,
    0.9517,
    0.0256,
    0.0,
    0.0006,
    0.0009,
    0.0009,
    0.9481,
    0.0121,
    0.0006,
    0.0,
    0.0006,
    0.0098,
    0.9517,
    0.0256,
    0.0009,
    0.0006,
    0.0,
    0.0009,
    0.0035,
    0.7845,
    0.0009,
    0.0098,
    0.0009,
    0.0
  ]
}